digraph Tree {
node [shape=box, style="filled, rounded", color="black", fontname=helvetica] ;
edge [fontname=helvetica] ;
0 [label="PC3 <= 0.573\ngini = 0.923\nsamples = 140\nvalue = [1, 6, 6, 6, 10, 4, 15, 5, 1, 9, 15, 6, 6, 2\n2, 4, 6, 22, 5, 9]\nclass = subaru", fillcolor="#fef4f9"] ;
1 [label="PC2 <= -0.194\ngini = 0.917\nsamples = 133\nvalue = [0, 6, 6, 6, 10, 4, 15, 5, 1, 9, 15, 6, 6, 2\n2, 4, 0, 22, 5, 9]\nclass = subaru", fillcolor="#fdf3f8"] ;
0 -> 1 [labeldistance=2.5, labelangle=45, headlabel="True"] ;
2 [label="PC1 <= 0.098\ngini = 0.791\nsamples = 41\nvalue = [0, 0, 0, 0, 0, 0, 4, 4, 0, 0, 2, 6, 1, 0\n0, 0, 0, 14, 1, 9]\nclass = subaru", fillcolor="#fbe0ed"] ;
1 -> 2 ;
3 [label="PC3 <= -0.231\ngini = 0.438\nsamples = 18\nvalue = [0, 0, 0, 0, 0, 0, 3, 0, 0, 0, 2, 0, 0, 0\n0, 0, 0, 13, 0, 0]\nclass = subaru", fillcolor="#ee7bb2"] ;
2 -> 3 ;
4 [label="PC2 <= -0.546\ngini = 0.48\nsamples = 5\nvalue = [0, 0, 0, 0, 0, 0, 3, 0, 0, 0, 2, 0, 0, 0\n0, 0, 0, 0, 0, 0]\nclass = isuzu", fillcolor="#bdf6c9"] ;
3 -> 4 ;
5 [label="gini = 0.0\nsamples = 3\nvalue = [0, 0, 0, 0, 0, 0, 3, 0, 0, 0, 0, 0, 0, 0\n0, 0, 0, 0, 0, 0]\nclass = isuzu", fillcolor="#39e55e"] ;
4 -> 5 ;
6 [label="gini = 0.0\nsamples = 2\nvalue = [0, 0, 0, 0, 0, 0, 0, 0, 0, 0, 2, 0, 0, 0\n0, 0, 0, 0, 0, 0]\nclass = mitsubishi", fillcolor="#399de5"] ;
4 -> 6 ;
7 [label="gini = 0.0\nsamples = 13\nvalue = [0, 0, 0, 0, 0, 0, 0, 0, 0, 0, 0, 0, 0, 0\n0, 0, 0, 13, 0, 0]\nclass = subaru", fillcolor="#e5398c"] ;
3 -> 7 ;
8 [label="PC1 <= 0.688\ngini = 0.741\nsamples = 23\nvalue = [0, 0, 0, 0, 0, 0, 1, 4, 0, 0, 0, 6, 1, 0\n0, 0, 0, 1, 1, 9]\nclass = volkswagen", fillcolor="#fae0dc"] ;
2 -> 8 ;
9 [label="PC3 <= -0.219\ngini = 0.5\nsamples = 6\nvalue = [0, 0, 0, 0, 0, 0, 0, 0, 0, 0, 0, 4, 1, 0\n0, 0, 0, 0, 1, 0]\nclass = nissan", fillcolor="#88a6ef"] ;
8 -> 9 ;
10 [label="PC1 <= 0.139\ngini = 0.5\nsamples = 2\nvalue = [0, 0, 0, 0, 0, 0, 0, 0, 0, 0, 0, 0, 1, 0\n0, 0, 0, 0, 1, 0]\nclass = peugot", fillcolor="#ffffff"] ;
9 -> 10 ;
11 [label="gini = 0.0\nsamples = 1\nvalue = [0, 0, 0, 0, 0, 0, 0, 0, 0, 0, 0, 0, 1, 0\n0, 0, 0, 0, 0, 0]\nclass = peugot", fillcolor="#3c39e5"] ;
10 -> 11 ;
12 [label="gini = 0.0\nsamples = 1\nvalue = [0, 0, 0, 0, 0, 0, 0, 0, 0, 0, 0, 0, 0, 0\n0, 0, 0, 0, 1, 0]\nclass = toyota", fillcolor="#e53958"] ;
10 -> 12 ;
13 [label="gini = 0.0\nsamples = 4\nvalue = [0, 0, 0, 0, 0, 0, 0, 0, 0, 0, 0, 4, 0, 0\n0, 0, 0, 0, 0, 0]\nclass = nissan", fillcolor="#396ae5"] ;
9 -> 13 ;
14 [label="PC3 <= -0.106\ngini = 0.644\nsamples = 17\nvalue = [0, 0, 0, 0, 0, 0, 1, 4, 0, 0, 0, 2, 0, 0\n0, 0, 0, 1, 0, 9]\nclass = volkswagen", fillcolor="#f5bbb3"] ;
8 -> 14 ;
15 [label="PC3 <= -0.21\ngini = 0.56\nsamples = 5\nvalue = [0, 0, 0, 0, 0, 0, 0, 3, 0, 0, 0, 1, 0, 0\n0, 0, 0, 1, 0, 0]\nclass = mazda", fillcolor="#9cf2c8"] ;
14 -> 15 ;
16 [label="gini = 0.0\nsamples = 1\nvalue = [0, 0, 0, 0, 0, 0, 0, 0, 0, 0, 0, 0, 0, 0\n0, 0, 0, 1, 0, 0]\nclass = subaru", fillcolor="#e5398c"] ;
15 -> 16 ;
17 [label="PC2 <= -0.413\ngini = 0.375\nsamples = 4\nvalue = [0, 0, 0, 0, 0, 0, 0, 3, 0, 0, 0, 1, 0, 0\n0, 0, 0, 0, 0, 0]\nclass = mazda", fillcolor="#7beeb6"] ;
15 -> 17 ;
18 [label="gini = 0.0\nsamples = 1\nvalue = [0, 0, 0, 0, 0, 0, 0, 0, 0, 0, 0, 1, 0, 0\n0, 0, 0, 0, 0, 0]\nclass = nissan", fillcolor="#396ae5"] ;
17 -> 18 ;
19 [label="gini = 0.0\nsamples = 3\nvalue = [0, 0, 0, 0, 0, 0, 0, 3, 0, 0, 0, 0, 0, 0\n0, 0, 0, 0, 0, 0]\nclass = mazda", fillcolor="#39e592"] ;
17 -> 19 ;
20 [label="PC2 <= -0.273\ngini = 0.417\nsamples = 12\nvalue = [0, 0, 0, 0, 0, 0, 1, 1, 0, 0, 0, 1, 0, 0\n0, 0, 0, 0, 0, 9]\nclass = volkswagen", fillcolor="#ec7e6f"] ;
14 -> 20 ;
21 [label="gini = 0.0\nsamples = 9\nvalue = [0, 0, 0, 0, 0, 0, 0, 0, 0, 0, 0, 0, 0, 0\n0, 0, 0, 0, 0, 9]\nclass = volkswagen", fillcolor="#e54d39"] ;
20 -> 21 ;
22 [label="PC1 <= 0.833\ngini = 0.667\nsamples = 3\nvalue = [0, 0, 0, 0, 0, 0, 1, 1, 0, 0, 0, 1, 0, 0\n0, 0, 0, 0, 0, 0]\nclass = isuzu", fillcolor="#ffffff"] ;
20 -> 22 ;
23 [label="gini = 0.0\nsamples = 1\nvalue = [0, 0, 0, 0, 0, 0, 0, 0, 0, 0, 0, 1, 0, 0\n0, 0, 0, 0, 0, 0]\nclass = nissan", fillcolor="#396ae5"] ;
22 -> 23 ;
24 [label="PC2 <= -0.211\ngini = 0.5\nsamples = 2\nvalue = [0, 0, 0, 0, 0, 0, 1, 1, 0, 0, 0, 0, 0, 0\n0, 0, 0, 0, 0, 0]\nclass = isuzu", fillcolor="#ffffff"] ;
22 -> 24 ;
25 [label="gini = 0.0\nsamples = 1\nvalue = [0, 0, 0, 0, 0, 0, 1, 0, 0, 0, 0, 0, 0, 0\n0, 0, 0, 0, 0, 0]\nclass = isuzu", fillcolor="#39e55e"] ;
24 -> 25 ;
26 [label="gini = 0.0\nsamples = 1\nvalue = [0, 0, 0, 0, 0, 0, 0, 1, 0, 0, 0, 0, 0, 0\n0, 0, 0, 0, 0, 0]\nclass = mazda", fillcolor="#39e592"] ;
24 -> 26 ;
27 [label="PC3 <= -0.459\ngini = 0.914\nsamples = 92\nvalue = [0, 6, 6, 6, 10, 4, 11, 1, 1, 9, 13, 0, 5, 2\n2, 4, 0, 8, 4, 0]\nclass = mitsubishi", fillcolor="#fafdfe"] ;
1 -> 27 ;
28 [label="PC1 <= 0.124\ngini = 0.219\nsamples = 8\nvalue = [0, 0, 0, 0, 7, 0, 0, 0, 0, 0, 0, 0, 0, 0\n1, 0, 0, 0, 0, 0]\nclass = dodge", fillcolor="#8ee955"] ;
27 -> 28 ;
29 [label="gini = 0.0\nsamples = 7\nvalue = [0, 0, 0, 0, 7, 0, 0, 0, 0, 0, 0, 0, 0, 0\n0, 0, 0, 0, 0, 0]\nclass = dodge", fillcolor="#7be539"] ;
28 -> 29 ;
30 [label="gini = 0.0\nsamples = 1\nvalue = [0, 0, 0, 0, 0, 0, 0, 0, 0, 0, 0, 0, 0, 0\n1, 0, 0, 0, 0, 0]\nclass = porsche", fillcolor="#a339e5"] ;
28 -> 30 ;
31 [label="PC3 <= 0.033\ngini = 0.91\nsamples = 84\nvalue = [0, 6, 6, 6, 3, 4, 11, 1, 1, 9, 13, 0, 5, 2\n1, 4, 0, 8, 4, 0]\nclass = mitsubishi", fillcolor="#fafcfe"] ;
27 -> 31 ;
32 [label="PC2 <= 0.042\ngini = 0.867\nsamples = 50\nvalue = [0, 6, 1, 6, 3, 1, 2, 0, 0, 9, 11, 0, 5, 0\n1, 0, 0, 1, 4, 0]\nclass = mitsubishi", fillcolor="#f5fafe"] ;
31 -> 32 ;
33 [label="PC3 <= -0.179\ngini = 0.655\nsamples = 20\nvalue = [0, 1, 0, 0, 1, 1, 2, 0, 0, 0, 11, 0, 0, 0\n0, 0, 0, 1, 3, 0]\nclass = mitsubishi", fillcolor="#a2d1f3"] ;
32 -> 33 ;
34 [label="PC1 <= 0.219\ngini = 0.56\nsamples = 5\nvalue = [0, 1, 0, 0, 0, 0, 0, 0, 0, 0, 0, 0, 0, 0\n0, 0, 0, 1, 3, 0]\nclass = toyota", fillcolor="#f29cac"] ;
33 -> 34 ;
35 [label="gini = 0.0\nsamples = 3\nvalue = [0, 0, 0, 0, 0, 0, 0, 0, 0, 0, 0, 0, 0, 0\n0, 0, 0, 0, 3, 0]\nclass = toyota", fillcolor="#e53958"] ;
34 -> 35 ;
36 [label="PC3 <= -0.31\ngini = 0.5\nsamples = 2\nvalue = [0, 1, 0, 0, 0, 0, 0, 0, 0, 0, 0, 0, 0, 0\n0, 0, 0, 1, 0, 0]\nclass = audi", fillcolor="#ffffff"] ;
34 -> 36 ;
37 [label="gini = 0.0\nsamples = 1\nvalue = [0, 1, 0, 0, 0, 0, 0, 0, 0, 0, 0, 0, 0, 0\n0, 0, 0, 0, 0, 0]\nclass = audi", fillcolor="#e5b439"] ;
36 -> 37 ;
38 [label="gini = 0.0\nsamples = 1\nvalue = [0, 0, 0, 0, 0, 0, 0, 0, 0, 0, 0, 0, 0, 0\n0, 0, 0, 1, 0, 0]\nclass = subaru", fillcolor="#e5398c"] ;
36 -> 38 ;
39 [label="PC2 <= -0.137\ngini = 0.436\nsamples = 15\nvalue = [0, 0, 0, 0, 1, 1, 2, 0, 0, 0, 11, 0, 0, 0\n0, 0, 0, 0, 0, 0]\nclass = mitsubishi", fillcolor="#76bbed"] ;
33 -> 39 ;
40 [label="gini = 0.0\nsamples = 2\nvalue = [0, 0, 0, 0, 0, 0, 2, 0, 0, 0, 0, 0, 0, 0\n0, 0, 0, 0, 0, 0]\nclass = isuzu", fillcolor="#39e55e"] ;
39 -> 40 ;
41 [label="PC3 <= -0.008\ngini = 0.272\nsamples = 13\nvalue = [0, 0, 0, 0, 1, 1, 0, 0, 0, 0, 11, 0, 0, 0\n0, 0, 0, 0, 0, 0]\nclass = mitsubishi", fillcolor="#5aade9"] ;
39 -> 41 ;
42 [label="gini = 0.0\nsamples = 11\nvalue = [0, 0, 0, 0, 0, 0, 0, 0, 0, 0, 11, 0, 0, 0\n0, 0, 0, 0, 0, 0]\nclass = mitsubishi", fillcolor="#399de5"] ;
41 -> 42 ;
43 [label="PC3 <= 0.016\ngini = 0.5\nsamples = 2\nvalue = [0, 0, 0, 0, 1, 1, 0, 0, 0, 0, 0, 0, 0, 0\n0, 0, 0, 0, 0, 0]\nclass = dodge", fillcolor="#ffffff"] ;
41 -> 43 ;
44 [label="gini = 0.0\nsamples = 1\nvalue = [0, 0, 0, 0, 1, 0, 0, 0, 0, 0, 0, 0, 0, 0\n0, 0, 0, 0, 0, 0]\nclass = dodge", fillcolor="#7be539"] ;
43 -> 44 ;
45 [label="gini = 0.0\nsamples = 1\nvalue = [0, 0, 0, 0, 0, 1, 0, 0, 0, 0, 0, 0, 0, 0\n0, 0, 0, 0, 0, 0]\nclass = honda", fillcolor="#47e539"] ;
43 -> 45 ;
46 [label="PC1 <= -0.825\ngini = 0.807\nsamples = 30\nvalue = [0, 5, 1, 6, 2, 0, 0, 0, 0, 9, 0, 0, 5, 0\n1, 0, 0, 0, 1, 0]\nclass = mercury", fillcolor="#e6f9fc"] ;
32 -> 46 ;
47 [label="PC2 <= 0.141\ngini = 0.278\nsamples = 6\nvalue = [0, 0, 0, 5, 0, 0, 0, 0, 0, 0, 0, 0, 1, 0\n0, 0, 0, 0, 0, 0]\nclass = chevrolet", fillcolor="#beea61"] ;
46 -> 47 ;
48 [label="PC3 <= -0.037\ngini = 0.5\nsamples = 2\nvalue = [0, 0, 0, 1, 0, 0, 0, 0, 0, 0, 0, 0, 1, 0\n0, 0, 0, 0, 0, 0]\nclass = chevrolet", fillcolor="#ffffff"] ;
47 -> 48 ;
49 [label="gini = 0.0\nsamples = 1\nvalue = [0, 0, 0, 1, 0, 0, 0, 0, 0, 0, 0, 0, 0, 0\n0, 0, 0, 0, 0, 0]\nclass = chevrolet", fillcolor="#aee539"] ;
48 -> 49 ;
50 [label="gini = 0.0\nsamples = 1\nvalue = [0, 0, 0, 0, 0, 0, 0, 0, 0, 0, 0, 0, 1, 0\n0, 0, 0, 0, 0, 0]\nclass = peugot", fillcolor="#3c39e5"] ;
48 -> 50 ;
51 [label="gini = 0.0\nsamples = 4\nvalue = [0, 0, 0, 4, 0, 0, 0, 0, 0, 0, 0, 0, 0, 0\n0, 0, 0, 0, 0, 0]\nclass = chevrolet", fillcolor="#aee539"] ;
47 -> 51 ;
52 [label="PC3 <= -0.219\ngini = 0.774\nsamples = 24\nvalue = [0, 5, 1, 1, 2, 0, 0, 0, 0, 9, 0, 0, 4, 0\n1, 0, 0, 0, 1, 0]\nclass = mercury", fillcolor="#d5f5fa"] ;
46 -> 52 ;
53 [label="PC3 <= -0.347\ngini = 0.617\nsamples = 9\nvalue = [0, 5, 0, 0, 1, 0, 0, 0, 0, 2, 0, 0, 0, 0\n1, 0, 0, 0, 0, 0]\nclass = audi", fillcolor="#f4dfaa"] ;
52 -> 53 ;
54 [label="PC1 <= 0.013\ngini = 0.444\nsamples = 3\nvalue = [0, 0, 0, 0, 0, 0, 0, 0, 0, 2, 0, 0, 0, 0\n1, 0, 0, 0, 0, 0]\nclass = mercury", fillcolor="#9ce8f2"] ;
53 -> 54 ;
55 [label="gini = 0.0\nsamples = 2\nvalue = [0, 0, 0, 0, 0, 0, 0, 0, 0, 2, 0, 0, 0, 0\n0, 0, 0, 0, 0, 0]\nclass = mercury", fillcolor="#39d1e5"] ;
54 -> 55 ;
56 [label="gini = 0.0\nsamples = 1\nvalue = [0, 0, 0, 0, 0, 0, 0, 0, 0, 0, 0, 0, 0, 0\n1, 0, 0, 0, 0, 0]\nclass = porsche", fillcolor="#a339e5"] ;
54 -> 56 ;
57 [label="PC1 <= -0.337\ngini = 0.278\nsamples = 6\nvalue = [0, 5, 0, 0, 1, 0, 0, 0, 0, 0, 0, 0, 0, 0\n0, 0, 0, 0, 0, 0]\nclass = audi", fillcolor="#eac361"] ;
53 -> 57 ;
58 [label="gini = 0.0\nsamples = 1\nvalue = [0, 0, 0, 0, 1, 0, 0, 0, 0, 0, 0, 0, 0, 0\n0, 0, 0, 0, 0, 0]\nclass = dodge", fillcolor="#7be539"] ;
57 -> 58 ;
59 [label="gini = 0.0\nsamples = 5\nvalue = [0, 5, 0, 0, 0, 0, 0, 0, 0, 0, 0, 0, 0, 0\n0, 0, 0, 0, 0, 0]\nclass = audi", fillcolor="#e5b439"] ;
57 -> 59 ;
60 [label="PC2 <= 0.328\ngini = 0.693\nsamples = 15\nvalue = [0, 0, 1, 1, 1, 0, 0, 0, 0, 7, 0, 0, 4, 0\n0, 0, 0, 0, 1, 0]\nclass = mercury", fillcolor="#c9f2f8"] ;
52 -> 60 ;
61 [label="PC3 <= -0.062\ngini = 0.444\nsamples = 3\nvalue = [0, 0, 1, 0, 0, 0, 0, 0, 0, 0, 0, 0, 2, 0\n0, 0, 0, 0, 0, 0]\nclass = peugot", fillcolor="#9e9cf2"] ;
60 -> 61 ;
62 [label="gini = 0.0\nsamples = 1\nvalue = [0, 0, 1, 0, 0, 0, 0, 0, 0, 0, 0, 0, 0, 0\n0, 0, 0, 0, 0, 0]\nclass = bmw", fillcolor="#e2e539"] ;
61 -> 62 ;
63 [label="gini = 0.0\nsamples = 2\nvalue = [0, 0, 0, 0, 0, 0, 0, 0, 0, 0, 0, 0, 2, 0\n0, 0, 0, 0, 0, 0]\nclass = peugot", fillcolor="#3c39e5"] ;
61 -> 63 ;
64 [label="PC3 <= -0.1\ngini = 0.611\nsamples = 12\nvalue = [0, 0, 0, 1, 1, 0, 0, 0, 0, 7, 0, 0, 2, 0\n0, 0, 0, 0, 1, 0]\nclass = mercury", fillcolor="#9ce8f2"] ;
60 -> 64 ;
65 [label="PC2 <= 0.447\ngini = 0.667\nsamples = 3\nvalue = [0, 0, 0, 0, 1, 0, 0, 0, 0, 0, 0, 0, 1, 0\n0, 0, 0, 0, 1, 0]\nclass = dodge", fillcolor="#ffffff"] ;
64 -> 65 ;
66 [label="gini = 0.0\nsamples = 1\nvalue = [0, 0, 0, 0, 1, 0, 0, 0, 0, 0, 0, 0, 0, 0\n0, 0, 0, 0, 0, 0]\nclass = dodge", fillcolor="#7be539"] ;
65 -> 66 ;
67 [label="PC3 <= -0.129\ngini = 0.5\nsamples = 2\nvalue = [0, 0, 0, 0, 0, 0, 0, 0, 0, 0, 0, 0, 1, 0\n0, 0, 0, 0, 1, 0]\nclass = peugot", fillcolor="#ffffff"] ;
65 -> 67 ;
68 [label="gini = 0.0\nsamples = 1\nvalue = [0, 0, 0, 0, 0, 0, 0, 0, 0, 0, 0, 0, 1, 0\n0, 0, 0, 0, 0, 0]\nclass = peugot", fillcolor="#3c39e5"] ;
67 -> 68 ;
69 [label="gini = 0.0\nsamples = 1\nvalue = [0, 0, 0, 0, 0, 0, 0, 0, 0, 0, 0, 0, 0, 0\n0, 0, 0, 0, 1, 0]\nclass = toyota", fillcolor="#e53958"] ;
67 -> 69 ;
70 [label="PC1 <= 0.513\ngini = 0.37\nsamples = 9\nvalue = [0, 0, 0, 1, 0, 0, 0, 0, 0, 7, 0, 0, 1, 0\n0, 0, 0, 0, 0, 0]\nclass = mercury", fillcolor="#6adcec"] ;
64 -> 70 ;
71 [label="gini = 0.0\nsamples = 6\nvalue = [0, 0, 0, 0, 0, 0, 0, 0, 0, 6, 0, 0, 0, 0\n0, 0, 0, 0, 0, 0]\nclass = mercury", fillcolor="#39d1e5"] ;
70 -> 71 ;
72 [label="PC2 <= 0.635\ngini = 0.667\nsamples = 3\nvalue = [0, 0, 0, 1, 0, 0, 0, 0, 0, 1, 0, 0, 1, 0\n0, 0, 0, 0, 0, 0]\nclass = chevrolet", fillcolor="#ffffff"] ;
70 -> 72 ;
73 [label="gini = 0.0\nsamples = 1\nvalue = [0, 0, 0, 0, 0, 0, 0, 0, 0, 1, 0, 0, 0, 0\n0, 0, 0, 0, 0, 0]\nclass = mercury", fillcolor="#39d1e5"] ;
72 -> 73 ;
74 [label="PC1 <= 0.514\ngini = 0.5\nsamples = 2\nvalue = [0, 0, 0, 1, 0, 0, 0, 0, 0, 0, 0, 0, 1, 0\n0, 0, 0, 0, 0, 0]\nclass = chevrolet", fillcolor="#ffffff"] ;
72 -> 74 ;
75 [label="gini = 0.0\nsamples = 1\nvalue = [0, 0, 0, 0, 0, 0, 0, 0, 0, 0, 0, 0, 1, 0\n0, 0, 0, 0, 0, 0]\nclass = peugot", fillcolor="#3c39e5"] ;
74 -> 75 ;
76 [label="gini = 0.0\nsamples = 1\nvalue = [0, 0, 0, 1, 0, 0, 0, 0, 0, 0, 0, 0, 0, 0\n0, 0, 0, 0, 0, 0]\nclass = chevrolet", fillcolor="#aee539"] ;
74 -> 76 ;
77 [label="PC3 <= 0.108\ngini = 0.836\nsamples = 34\nvalue = [0, 0, 5, 0, 0, 3, 9, 1, 1, 0, 2, 0, 0, 2\n0, 4, 0, 7, 0, 0]\nclass = isuzu", fillcolor="#f0fdf3"] ;
31 -> 77 ;
78 [label="PC1 <= 0.457\ngini = 0.417\nsamples = 12\nvalue = [0, 0, 0, 0, 0, 1, 9, 0, 0, 0, 1, 0, 0, 0\n0, 0, 0, 1, 0, 0]\nclass = isuzu", fillcolor="#6fec8a"] ;
77 -> 78 ;
79 [label="PC2 <= -0.044\ngini = 0.314\nsamples = 11\nvalue = [0, 0, 0, 0, 0, 1, 9, 0, 0, 0, 1, 0, 0, 0\n0, 0, 0, 0, 0, 0]\nclass = isuzu", fillcolor="#61ea7e"] ;
78 -> 79 ;
80 [label="gini = 0.0\nsamples = 5\nvalue = [0, 0, 0, 0, 0, 0, 5, 0, 0, 0, 0, 0, 0, 0\n0, 0, 0, 0, 0, 0]\nclass = isuzu", fillcolor="#39e55e"] ;
79 -> 80 ;
81 [label="PC3 <= 0.077\ngini = 0.5\nsamples = 6\nvalue = [0, 0, 0, 0, 0, 1, 4, 0, 0, 0, 1, 0, 0, 0\n0, 0, 0, 0, 0, 0]\nclass = isuzu", fillcolor="#88ef9e"] ;
79 -> 81 ;
82 [label="PC1 <= -0.779\ngini = 0.5\nsamples = 2\nvalue = [0, 0, 0, 0, 0, 1, 0, 0, 0, 0, 1, 0, 0, 0\n0, 0, 0, 0, 0, 0]\nclass = honda", fillcolor="#ffffff"] ;
81 -> 82 ;
83 [label="gini = 0.0\nsamples = 1\nvalue = [0, 0, 0, 0, 0, 1, 0, 0, 0, 0, 0, 0, 0, 0\n0, 0, 0, 0, 0, 0]\nclass = honda", fillcolor="#47e539"] ;
82 -> 83 ;
84 [label="gini = 0.0\nsamples = 1\nvalue = [0, 0, 0, 0, 0, 0, 0, 0, 0, 0, 1, 0, 0, 0\n0, 0, 0, 0, 0, 0]\nclass = mitsubishi", fillcolor="#399de5"] ;
82 -> 84 ;
85 [label="gini = 0.0\nsamples = 4\nvalue = [0, 0, 0, 0, 0, 0, 4, 0, 0, 0, 0, 0, 0, 0\n0, 0, 0, 0, 0, 0]\nclass = isuzu", fillcolor="#39e55e"] ;
81 -> 85 ;
86 [label="gini = 0.0\nsamples = 1\nvalue = [0, 0, 0, 0, 0, 0, 0, 0, 0, 0, 0, 0, 0, 0\n0, 0, 0, 1, 0, 0]\nclass = subaru", fillcolor="#e5398c"] ;
78 -> 86 ;
87 [label="PC1 <= 0.512\ngini = 0.818\nsamples = 22\nvalue = [0, 0, 5, 0, 0, 2, 0, 1, 1, 0, 1, 0, 0, 2\n0, 4, 0, 6, 0, 0]\nclass = subaru", fillcolor="#fdf3f8"] ;
77 -> 87 ;
88 [label="PC3 <= 0.201\ngini = 0.593\nsamples = 9\nvalue = [0, 0, 2, 0, 0, 2, 0, 0, 0, 0, 0, 0, 0, 0\n0, 0, 0, 5, 0, 0]\nclass = subaru", fillcolor="#f4aace"] ;
87 -> 88 ;
89 [label="gini = 0.0\nsamples = 3\nvalue = [0, 0, 0, 0, 0, 0, 0, 0, 0, 0, 0, 0, 0, 0\n0, 0, 0, 3, 0, 0]\nclass = subaru", fillcolor="#e5398c"] ;
88 -> 89 ;
90 [label="PC1 <= -0.538\ngini = 0.667\nsamples = 6\nvalue = [0, 0, 2, 0, 0, 2, 0, 0, 0, 0, 0, 0, 0, 0\n0, 0, 0, 2, 0, 0]\nclass = bmw", fillcolor="#ffffff"] ;
88 -> 90 ;
91 [label="gini = 0.0\nsamples = 2\nvalue = [0, 0, 0, 0, 0, 0, 0, 0, 0, 0, 0, 0, 0, 0\n0, 0, 0, 2, 0, 0]\nclass = subaru", fillcolor="#e5398c"] ;
90 -> 91 ;
92 [label="PC1 <= 0.083\ngini = 0.5\nsamples = 4\nvalue = [0, 0, 2, 0, 0, 2, 0, 0, 0, 0, 0, 0, 0, 0\n0, 0, 0, 0, 0, 0]\nclass = bmw", fillcolor="#ffffff"] ;
90 -> 92 ;
93 [label="gini = 0.0\nsamples = 2\nvalue = [0, 0, 0, 0, 0, 2, 0, 0, 0, 0, 0, 0, 0, 0\n0, 0, 0, 0, 0, 0]\nclass = honda", fillcolor="#47e539"] ;
92 -> 93 ;
94 [label="gini = 0.0\nsamples = 2\nvalue = [0, 0, 2, 0, 0, 0, 0, 0, 0, 0, 0, 0, 0, 0\n0, 0, 0, 0, 0, 0]\nclass = bmw", fillcolor="#e2e539"] ;
92 -> 94 ;
95 [label="PC3 <= 0.318\ngini = 0.805\nsamples = 13\nvalue = [0, 0, 3, 0, 0, 0, 0, 1, 1, 0, 1, 0, 0, 2\n0, 4, 0, 1, 0, 0]\nclass = renault", fillcolor="#fbebfc"] ;
87 -> 95 ;
96 [label="PC2 <= 0.068\ngini = 0.76\nsamples = 11\nvalue = [0, 0, 3, 0, 0, 0, 0, 1, 1, 0, 1, 0, 0, 0\n0, 4, 0, 1, 0, 0]\nclass = renault", fillcolor="#fae6fc"] ;
95 -> 96 ;
97 [label="PC1 <= 0.899\ngini = 0.56\nsamples = 5\nvalue = [0, 0, 3, 0, 0, 0, 0, 0, 1, 0, 0, 0, 0, 0\n0, 1, 0, 0, 0, 0]\nclass = bmw", fillcolor="#f0f29c"] ;
96 -> 97 ;
98 [label="PC3 <= 0.249\ngini = 0.375\nsamples = 4\nvalue = [0, 0, 3, 0, 0, 0, 0, 0, 0, 0, 0, 0, 0, 0\n0, 1, 0, 0, 0, 0]\nclass = bmw", fillcolor="#ecee7b"] ;
97 -> 98 ;
99 [label="PC3 <= 0.196\ngini = 0.5\nsamples = 2\nvalue = [0, 0, 1, 0, 0, 0, 0, 0, 0, 0, 0, 0, 0, 0\n0, 1, 0, 0, 0, 0]\nclass = bmw", fillcolor="#ffffff"] ;
98 -> 99 ;
100 [label="gini = 0.0\nsamples = 1\nvalue = [0, 0, 1, 0, 0, 0, 0, 0, 0, 0, 0, 0, 0, 0\n0, 0, 0, 0, 0, 0]\nclass = bmw", fillcolor="#e2e539"] ;
99 -> 100 ;
101 [label="gini = 0.0\nsamples = 1\nvalue = [0, 0, 0, 0, 0, 0, 0, 0, 0, 0, 0, 0, 0, 0\n0, 1, 0, 0, 0, 0]\nclass = renault", fillcolor="#d739e5"] ;
99 -> 101 ;
102 [label="gini = 0.0\nsamples = 2\nvalue = [0, 0, 2, 0, 0, 0, 0, 0, 0, 0, 0, 0, 0, 0\n0, 0, 0, 0, 0, 0]\nclass = bmw", fillcolor="#e2e539"] ;
98 -> 102 ;
103 [label="gini = 0.0\nsamples = 1\nvalue = [0, 0, 0, 0, 0, 0, 0, 0, 1, 0, 0, 0, 0, 0\n0, 0, 0, 0, 0, 0]\nclass = mercedes-benz", fillcolor="#39e5c5"] ;
97 -> 103 ;
104 [label="PC1 <= 0.81\ngini = 0.667\nsamples = 6\nvalue = [0, 0, 0, 0, 0, 0, 0, 1, 0, 0, 1, 0, 0, 0\n0, 3, 0, 1, 0, 0]\nclass = renault", fillcolor="#efb0f5"] ;
96 -> 104 ;
105 [label="PC2 <= 0.541\ngini = 0.56\nsamples = 5\nvalue = [0, 0, 0, 0, 0, 0, 0, 0, 0, 0, 1, 0, 0, 0\n0, 3, 0, 1, 0, 0]\nclass = renault", fillcolor="#eb9cf2"] ;
104 -> 105 ;
106 [label="PC1 <= 0.688\ngini = 0.375\nsamples = 4\nvalue = [0, 0, 0, 0, 0, 0, 0, 0, 0, 0, 0, 0, 0, 0\n0, 3, 0, 1, 0, 0]\nclass = renault", fillcolor="#e47bee"] ;
105 -> 106 ;
107 [label="PC1 <= 0.598\ngini = 0.5\nsamples = 2\nvalue = [0, 0, 0, 0, 0, 0, 0, 0, 0, 0, 0, 0, 0, 0\n0, 1, 0, 1, 0, 0]\nclass = renault", fillcolor="#ffffff"] ;
106 -> 107 ;
108 [label="gini = 0.0\nsamples = 1\nvalue = [0, 0, 0, 0, 0, 0, 0, 0, 0, 0, 0, 0, 0, 0\n0, 1, 0, 0, 0, 0]\nclass = renault", fillcolor="#d739e5"] ;
107 -> 108 ;
109 [label="gini = 0.0\nsamples = 1\nvalue = [0, 0, 0, 0, 0, 0, 0, 0, 0, 0, 0, 0, 0, 0\n0, 0, 0, 1, 0, 0]\nclass = subaru", fillcolor="#e5398c"] ;
107 -> 109 ;
110 [label="gini = 0.0\nsamples = 2\nvalue = [0, 0, 0, 0, 0, 0, 0, 0, 0, 0, 0, 0, 0, 0\n0, 2, 0, 0, 0, 0]\nclass = renault", fillcolor="#d739e5"] ;
106 -> 110 ;
111 [label="gini = 0.0\nsamples = 1\nvalue = [0, 0, 0, 0, 0, 0, 0, 0, 0, 0, 1, 0, 0, 0\n0, 0, 0, 0, 0, 0]\nclass = mitsubishi", fillcolor="#399de5"] ;
105 -> 111 ;
112 [label="gini = 0.0\nsamples = 1\nvalue = [0, 0, 0, 0, 0, 0, 0, 1, 0, 0, 0, 0, 0, 0\n0, 0, 0, 0, 0, 0]\nclass = mazda", fillcolor="#39e592"] ;
104 -> 112 ;
113 [label="gini = 0.0\nsamples = 2\nvalue = [0, 0, 0, 0, 0, 0, 0, 0, 0, 0, 0, 0, 0, 2\n0, 0, 0, 0, 0, 0]\nclass = plymouth", fillcolor="#6f39e5"] ;
95 -> 113 ;
114 [label="PC2 <= 0.094\ngini = 0.245\nsamples = 7\nvalue = [1, 0, 0, 0, 0, 0, 0, 0, 0, 0, 0, 0, 0, 0\n0, 0, 6, 0, 0, 0]\nclass = saab", fillcolor="#e95acb"] ;
0 -> 114 [labeldistance=2.5, labelangle=-45, headlabel="False"] ;
115 [label="gini = 0.0\nsamples = 6\nvalue = [0, 0, 0, 0, 0, 0, 0, 0, 0, 0, 0, 0, 0, 0\n0, 0, 6, 0, 0, 0]\nclass = saab", fillcolor="#e539c0"] ;
114 -> 115 ;
116 [label="gini = 0.0\nsamples = 1\nvalue = [1, 0, 0, 0, 0, 0, 0, 0, 0, 0, 0, 0, 0, 0\n0, 0, 0, 0, 0, 0]\nclass = alfa-romero", fillcolor="#e58139"] ;
114 -> 116 ;
}