digraph Tree {
node [shape=box, style="filled, rounded", color="black", fontname=helvetica] ;
edge [fontname=helvetica] ;
0 [label="PC2 <= -0.177\ngini = 0.488\nsamples = 140\nvalue = [81, 59]\nclass = Risky", fillcolor="#f8ddc9"] ;
1 [label="PC2 <= -0.32\ngini = 0.159\nsamples = 46\nvalue = [4, 42]\nclass = Safe", fillcolor="#4ca6e7"] ;
0 -> 1 [labeldistance=2.5, labelangle=45, headlabel="True"] ;
2 [label="gini = 0.0\nsamples = 36\nvalue = [0, 36]\nclass = Safe", fillcolor="#399de5"] ;
1 -> 2 ;
3 [label="PC3 <= 0.09\ngini = 0.48\nsamples = 10\nvalue = [4, 6]\nclass = Safe", fillcolor="#bddef6"] ;
1 -> 3 ;
4 [label="gini = 0.0\nsamples = 5\nvalue = [0, 5]\nclass = Safe", fillcolor="#399de5"] ;
3 -> 4 ;
5 [label="PC1 <= 0.262\ngini = 0.32\nsamples = 5\nvalue = [4, 1]\nclass = Risky", fillcolor="#eca06a"] ;
3 -> 5 ;
6 [label="gini = 0.0\nsamples = 4\nvalue = [4, 0]\nclass = Risky", fillcolor="#e58139"] ;
5 -> 6 ;
7 [label="gini = 0.0\nsamples = 1\nvalue = [0, 1]\nclass = Safe", fillcolor="#399de5"] ;
5 -> 7 ;
8 [label="PC3 <= -0.443\ngini = 0.296\nsamples = 94\nvalue = [77, 17]\nclass = Risky", fillcolor="#eb9d65"] ;
0 -> 8 [labeldistance=2.5, labelangle=-45, headlabel="False"] ;
9 [label="PC2 <= 0.266\ngini = 0.198\nsamples = 9\nvalue = [1, 8]\nclass = Safe", fillcolor="#52a9e8"] ;
8 -> 9 ;
10 [label="gini = 0.0\nsamples = 8\nvalue = [0, 8]\nclass = Safe", fillcolor="#399de5"] ;
9 -> 10 ;
11 [label="gini = 0.0\nsamples = 1\nvalue = [1, 0]\nclass = Risky", fillcolor="#e58139"] ;
9 -> 11 ;
12 [label="PC1 <= 0.876\ngini = 0.189\nsamples = 85\nvalue = [76, 9]\nclass = Risky", fillcolor="#e89050"] ;
8 -> 12 ;
13 [label="PC2 <= 0.316\ngini = 0.117\nsamples = 80\nvalue = [75, 5]\nclass = Risky", fillcolor="#e78946"] ;
12 -> 13 ;
14 [label="PC1 <= -0.487\ngini = 0.234\nsamples = 37\nvalue = [32, 5]\nclass = Risky", fillcolor="#e99558"] ;
13 -> 14 ;
15 [label="PC1 <= -0.816\ngini = 0.071\nsamples = 27\nvalue = [26, 1]\nclass = Risky", fillcolor="#e68641"] ;
14 -> 15 ;
16 [label="gini = 0.0\nsamples = 18\nvalue = [18, 0]\nclass = Risky", fillcolor="#e58139"] ;
15 -> 16 ;
17 [label="PC1 <= -0.803\ngini = 0.198\nsamples = 9\nvalue = [8, 1]\nclass = Risky", fillcolor="#e89152"] ;
15 -> 17 ;
18 [label="gini = 0.0\nsamples = 1\nvalue = [0, 1]\nclass = Safe", fillcolor="#399de5"] ;
17 -> 18 ;
19 [label="gini = 0.0\nsamples = 8\nvalue = [8, 0]\nclass = Risky", fillcolor="#e58139"] ;
17 -> 19 ;
20 [label="PC2 <= 0.037\ngini = 0.48\nsamples = 10\nvalue = [6, 4]\nclass = Risky", fillcolor="#f6d5bd"] ;
14 -> 20 ;
21 [label="PC1 <= -0.405\ngini = 0.278\nsamples = 6\nvalue = [5, 1]\nclass = Risky", fillcolor="#ea9a61"] ;
20 -> 21 ;
22 [label="gini = 0.0\nsamples = 1\nvalue = [0, 1]\nclass = Safe", fillcolor="#399de5"] ;
21 -> 22 ;
23 [label="gini = 0.0\nsamples = 5\nvalue = [5, 0]\nclass = Risky", fillcolor="#e58139"] ;
21 -> 23 ;
24 [label="PC3 <= 0.305\ngini = 0.375\nsamples = 4\nvalue = [1, 3]\nclass = Safe", fillcolor="#7bbeee"] ;
20 -> 24 ;
25 [label="gini = 0.0\nsamples = 3\nvalue = [0, 3]\nclass = Safe", fillcolor="#399de5"] ;
24 -> 25 ;
26 [label="gini = 0.0\nsamples = 1\nvalue = [1, 0]\nclass = Risky", fillcolor="#e58139"] ;
24 -> 26 ;
27 [label="gini = 0.0\nsamples = 43\nvalue = [43, 0]\nclass = Risky", fillcolor="#e58139"] ;
13 -> 27 ;
28 [label="PC3 <= 0.078\ngini = 0.32\nsamples = 5\nvalue = [1, 4]\nclass = Safe", fillcolor="#6ab6ec"] ;
12 -> 28 ;
29 [label="gini = 0.0\nsamples = 4\nvalue = [0, 4]\nclass = Safe", fillcolor="#399de5"] ;
28 -> 29 ;
30 [label="gini = 0.0\nsamples = 1\nvalue = [1, 0]\nclass = Risky", fillcolor="#e58139"] ;
28 -> 30 ;
}