digraph Tree {
node [shape=box, style="filled, rounded", color="black", fontname=helvetica] ;
edge [fontname=helvetica] ;
0 [label="PC2 <= -0.194\ngini = 0.498\nsamples = 140\nvalue = [66, 74]\nclass = risky", fillcolor="#eaf4fc"] ;
1 [label="PC1 <= -0.79\ngini = 0.109\nsamples = 52\nvalue = [49, 3]\nclass = not risky", fillcolor="#e78945"] ;
0 -> 1 [labeldistance=2.5, labelangle=45, headlabel="True"] ;
2 [label="PC3 <= 0.065\ngini = 0.444\nsamples = 3\nvalue = [1, 2]\nclass = risky", fillcolor="#9ccef2"] ;
1 -> 2 ;
3 [label="gini = 0.0\nsamples = 1\nvalue = [1, 0]\nclass = not risky", fillcolor="#e58139"] ;
2 -> 3 ;
4 [label="gini = 0.0\nsamples = 2\nvalue = [0, 2]\nclass = risky", fillcolor="#399de5"] ;
2 -> 4 ;
5 [label="PC3 <= 0.718\ngini = 0.04\nsamples = 49\nvalue = [48, 1]\nclass = not risky", fillcolor="#e6843d"] ;
1 -> 5 ;
6 [label="gini = 0.0\nsamples = 45\nvalue = [45, 0]\nclass = not risky", fillcolor="#e58139"] ;
5 -> 6 ;
7 [label="PC1 <= -0.269\ngini = 0.375\nsamples = 4\nvalue = [3, 1]\nclass = not risky", fillcolor="#eeab7b"] ;
5 -> 7 ;
8 [label="gini = 0.0\nsamples = 1\nvalue = [0, 1]\nclass = risky", fillcolor="#399de5"] ;
7 -> 8 ;
9 [label="gini = 0.0\nsamples = 3\nvalue = [3, 0]\nclass = not risky", fillcolor="#e58139"] ;
7 -> 9 ;
10 [label="PC3 <= -0.429\ngini = 0.312\nsamples = 88\nvalue = [17, 71]\nclass = risky", fillcolor="#68b4eb"] ;
0 -> 10 [labeldistance=2.5, labelangle=-45, headlabel="False"] ;
11 [label="PC2 <= 0.355\ngini = 0.245\nsamples = 7\nvalue = [6, 1]\nclass = not risky", fillcolor="#e9965a"] ;
10 -> 11 ;
12 [label="gini = 0.0\nsamples = 6\nvalue = [6, 0]\nclass = not risky", fillcolor="#e58139"] ;
11 -> 12 ;
13 [label="gini = 0.0\nsamples = 1\nvalue = [0, 1]\nclass = risky", fillcolor="#399de5"] ;
11 -> 13 ;
14 [label="PC1 <= 0.885\ngini = 0.235\nsamples = 81\nvalue = [11, 70]\nclass = risky", fillcolor="#58ace9"] ;
10 -> 14 ;
15 [label="PC3 <= 0.249\ngini = 0.147\nsamples = 75\nvalue = [6, 69]\nclass = risky", fillcolor="#4aa6e7"] ;
14 -> 15 ;
16 [label="PC2 <= -0.067\ngini = 0.084\nsamples = 68\nvalue = [3, 65]\nclass = risky", fillcolor="#42a2e6"] ;
15 -> 16 ;
17 [label="PC2 <= -0.078\ngini = 0.219\nsamples = 16\nvalue = [2, 14]\nclass = risky", fillcolor="#55abe9"] ;
16 -> 17 ;
18 [label="PC3 <= 0.173\ngini = 0.124\nsamples = 15\nvalue = [1, 14]\nclass = risky", fillcolor="#47a4e7"] ;
17 -> 18 ;
19 [label="gini = 0.0\nsamples = 12\nvalue = [0, 12]\nclass = risky", fillcolor="#399de5"] ;
18 -> 19 ;
20 [label="PC1 <= 0.088\ngini = 0.444\nsamples = 3\nvalue = [1, 2]\nclass = risky", fillcolor="#9ccef2"] ;
18 -> 20 ;
21 [label="gini = 0.0\nsamples = 1\nvalue = [1, 0]\nclass = not risky", fillcolor="#e58139"] ;
20 -> 21 ;
22 [label="gini = 0.0\nsamples = 2\nvalue = [0, 2]\nclass = risky", fillcolor="#399de5"] ;
20 -> 22 ;
23 [label="gini = 0.0\nsamples = 1\nvalue = [1, 0]\nclass = not risky", fillcolor="#e58139"] ;
17 -> 23 ;
24 [label="PC1 <= 0.673\ngini = 0.038\nsamples = 52\nvalue = [1, 51]\nclass = risky", fillcolor="#3d9fe6"] ;
16 -> 24 ;
25 [label="gini = 0.0\nsamples = 47\nvalue = [0, 47]\nclass = risky", fillcolor="#399de5"] ;
24 -> 25 ;
26 [label="PC1 <= 0.708\ngini = 0.32\nsamples = 5\nvalue = [1, 4]\nclass = risky", fillcolor="#6ab6ec"] ;
24 -> 26 ;
27 [label="gini = 0.0\nsamples = 1\nvalue = [1, 0]\nclass = not risky", fillcolor="#e58139"] ;
26 -> 27 ;
28 [label="gini = 0.0\nsamples = 4\nvalue = [0, 4]\nclass = risky", fillcolor="#399de5"] ;
26 -> 28 ;
29 [label="PC3 <= 0.305\ngini = 0.49\nsamples = 7\nvalue = [3, 4]\nclass = risky", fillcolor="#cee6f8"] ;
15 -> 29 ;
30 [label="gini = 0.0\nsamples = 3\nvalue = [3, 0]\nclass = not risky", fillcolor="#e58139"] ;
29 -> 30 ;
31 [label="gini = 0.0\nsamples = 4\nvalue = [0, 4]\nclass = risky", fillcolor="#399de5"] ;
29 -> 31 ;
32 [label="PC3 <= 0.09\ngini = 0.278\nsamples = 6\nvalue = [5, 1]\nclass = not risky", fillcolor="#ea9a61"] ;
14 -> 32 ;
33 [label="gini = 0.0\nsamples = 5\nvalue = [5, 0]\nclass = not risky", fillcolor="#e58139"] ;
32 -> 33 ;
34 [label="gini = 0.0\nsamples = 1\nvalue = [0, 1]\nclass = risky", fillcolor="#399de5"] ;
32 -> 34 ;
}